{"parameters/fc1.weight": {"_type": "histogram", "values": [1.0, 4.0, 5.0, 8.0, 8.0, 5.0, 1.0, 4.0, 3.0, 2.0, 7.0, 4.0, 11.0, 3.0, 6.0, 4.0, 7.0, 6.0, 7.0, 1.0, 4.0, 6.0, 3.0, 7.0, 13.0, 8.0, 9.0, 6.0, 7.0, 12.0, 10.0, 7.0, 3.0, 6.0, 5.0, 9.0, 5.0, 3.0, 4.0, 2.0, 7.0, 4.0, 6.0, 7.0, 7.0, 9.0, 6.0, 7.0, 7.0, 5.0, 5.0, 6.0, 6.0, 6.0, 5.0, 11.0, 5.0, 3.0, 5.0, 5.0, 3.0, 5.0, 2.0, 2.0], "bins": [-0.6036009788513184, -0.5843920111656189, -0.5651830434799194, -0.5459741353988647, -0.5267651677131653, -0.5075562000274658, -0.48834723234176636, -0.4691382646560669, -0.4499293267726898, -0.43072035908699036, -0.4115114212036133, -0.3923024535179138, -0.37309348583221436, -0.3538845479488373, -0.3346755802631378, -0.31546664237976074, -0.2962576746940613, -0.2770487070083618, -0.25783976912498474, -0.23863080143928528, -0.219421848654747, -0.20021289587020874, -0.18100392818450928, -0.161794975399971, -0.14258602261543274, -0.12337706983089447, -0.1041681095957756, -0.08495914936065674, -0.06575019657611847, -0.0465412437915802, -0.027332283556461334, -0.008123323321342468, 0.0110856294631958, 0.03029458597302437, 0.049503542482852936, 0.0687125027179718, 0.08792145550251007, 0.10713040828704834, 0.1263393759727478, 0.14554832875728607, 0.16475728154182434, 0.1839662343263626, 0.20317518711090088, 0.22238415479660034, 0.2415931075811386, 0.2608020603656769, 0.28001102805137634, 0.2992199659347534, 0.3184289336204529, 0.33763790130615234, 0.3568468391895294, 0.3760558068752289, 0.39526474475860596, 0.4144737124443054, 0.4336826801300049, 0.45289164781570435, 0.4721005856990814, 0.4913095533847809, 0.510518491268158, 0.5297274589538574, 0.5489364266395569, 0.5681453943252563, 0.587354302406311, 0.6065632700920105, 0.62577223777771]}, "parameters/fc1.bias": {"_type": "histogram", "values": [2.0, 2.0, 1.0, 1.0, 0.0, 3.0, 0.0, 1.0, 2.0, 1.0, 0.0, 2.0, 3.0, 1.0, 6.0, 1.0, 5.0, 2.0, 2.0, 1.0, 3.0, 1.0, 2.0, 4.0, 5.0, 1.0, 0.0, 2.0, 2.0, 2.0, 2.0, 5.0, 4.0, 1.0, 1.0, 2.0, 1.0, 2.0, 1.0, 2.0, 0.0, 1.0, 1.0, 4.0, 3.0, 1.0, 5.0, 2.0, 4.0, 0.0, 1.0, 1.0, 2.0, 1.0, 2.0, 1.0, 2.0, 0.0, 1.0, 2.0, 0.0, 0.0, 4.0, 3.0], "bins": [-0.5590072870254517, -0.5413315892219543, -0.523655891418457, -0.5059801340103149, -0.4883044362068176, -0.4706287384033203, -0.452953040599823, -0.4352773427963257, -0.417601615190506, -0.39992591738700867, -0.38225018978118896, -0.36457449197769165, -0.34689879417419434, -0.32922306656837463, -0.3115473687648773, -0.2938716411590576, -0.2761959433555603, -0.258520245552063, -0.2408445179462433, -0.22316882014274597, -0.20549310743808746, -0.18781739473342896, -0.17014169692993164, -0.15246598422527313, -0.13479027152061462, -0.11711455881595612, -0.0994388535618782, -0.08176314830780029, -0.06408743560314178, -0.046411722898483276, -0.028736017644405365, -0.011060312390327454, 0.00661545991897583, 0.02429116889834404, 0.04196687787771225, 0.05964258685708046, 0.07731829583644867, 0.09499400854110718, 0.11266971379518509, 0.130345419049263, 0.1480211317539215, 0.16569684445858002, 0.18337255716323853, 0.20104825496673584, 0.21872396767139435, 0.23639968037605286, 0.25407537817955017, 0.2717511057853699, 0.2894268035888672, 0.3071025013923645, 0.3247782289981842, 0.3424539268016815, 0.3601296544075012, 0.37780535221099854, 0.39548105001449585, 0.41315674781799316, 0.43083247542381287, 0.4485081732273102, 0.4661839008331299, 0.4838595986366272, 0.5015352964401245, 0.5192110538482666, 0.5368867516517639, 0.5545624494552612, 0.5722381472587585]}, "parameters/fc2.weight": {"_type": "histogram", "values": [1.0, 0.0, 0.0, 4.0, 3.0, 4.0, 3.0, 5.0, 8.0, 8.0, 8.0, 27.0, 35.0, 54.0, 290.0, 345.0, 314.0, 371.0, 359.0, 355.0, 345.0, 337.0, 339.0, 351.0, 341.0, 392.0, 334.0, 331.0, 345.0, 371.0, 338.0, 335.0, 349.0, 347.0, 367.0, 352.0, 385.0, 358.0, 340.0, 303.0, 309.0, 306.0, 176.0, 47.0, 22.0, 12.0, 9.0, 7.0, 10.0, 7.0, 4.0, 5.0, 4.0, 3.0, 1.0, 2.0, 0.0, 0.0, 1.0, 0.0, 0.0, 0.0, 0.0, 1.0], "bins": [-0.18175332248210907, -0.17533379793167114, -0.16891427338123322, -0.1624947488307953, -0.15607523918151855, -0.14965569972991943, -0.1432361900806427, -0.13681666553020477, -0.13039714097976685, -0.12397761642932892, -0.11755809187889099, -0.11113857477903366, -0.10471905022859573, -0.0982995256781578, -0.09188000857830048, -0.08546048402786255, -0.07904095947742462, -0.0726214349269867, -0.06620191037654877, -0.05978239327669144, -0.05336286872625351, -0.04694334417581558, -0.040523823350667953, -0.034104302525520325, -0.027684777975082397, -0.02126525528728962, -0.014845732599496841, -0.008426209911704063, -0.0020066872239112854, 0.004412837326526642, 0.01083235815167427, 0.0172518789768219, 0.02367141842842102, 0.0300909411162138, 0.03651046380400658, 0.042929984629154205, 0.04934950917959213, 0.05576903373003006, 0.06218855455517769, 0.06860807538032532, 0.07502759993076324, 0.08144712448120117, 0.0878666490316391, 0.09428616613149643, 0.10070569068193436, 0.10712521523237228, 0.11354473233222961, 0.11996425688266754, 0.12638378143310547, 0.1328033059835434, 0.13922283053398132, 0.14564235508441925, 0.15206187963485718, 0.1584813892841339, 0.16490091383457184, 0.17132043838500977, 0.1777399629354477, 0.18415948748588562, 0.19057901203632355, 0.19699853658676147, 0.2034180462360382, 0.20983758568763733, 0.21625709533691406, 0.222676619887352, 0.22909614443778992]}, "parameters/fc2.bias": {"_type": "histogram", "values": [1.0, 0.0, 0.0, 0.0, 0.0, 1.0, 0.0, 1.0, 1.0, 0.0, 2.0, 1.0, 2.0, 1.0, 1.0, 2.0, 1.0, 3.0, 1.0, 1.0, 0.0, 4.0, 2.0, 2.0, 1.0, 2.0, 2.0, 2.0, 1.0, 1.0, 2.0, 1.0, 2.0, 2.0, 1.0, 2.0, 2.0, 3.0, 3.0, 3.0, 1.0, 1.0, 1.0, 3.0, 0.0, 0.0, 2.0, 0.0, 1.0, 0.0, 1.0, 3.0, 3.0, 1.0, 0.0, 2.0, 1.0, 0.0, 0.0, 1.0, 1.0, 0.0, 3.0, 2.0], "bins": [-0.10795485228300095, -0.10479795187711716, -0.10164104402065277, -0.09848414361476898, -0.09532724320888519, -0.0921703353524208, -0.08901343494653702, -0.08585652709007263, -0.08269962668418884, -0.07954272627830505, -0.07638581842184067, -0.07322891801595688, -0.07007201015949249, -0.0669151097536087, -0.06375820934772491, -0.06060130521655083, -0.05744440108537674, -0.05428749695420265, -0.051130592823028564, -0.047973692417144775, -0.04481678828597069, -0.0416598841547966, -0.03850298374891281, -0.035346079617738724, -0.032189175486564636, -0.02903227135539055, -0.02587536908686161, -0.022718466818332672, -0.019561562687158585, -0.016404658555984497, -0.013247756287455559, -0.01009085401892662, -0.00693395733833313, -0.003777054138481617, -0.0006201509386301041, 0.002536752261221409, 0.005693655461072922, 0.00885055959224701, 0.012007461860775948, 0.015164364129304886, 0.018321268260478973, 0.02147817239165306, 0.024635074660182, 0.027791976928710938, 0.030948881059885025, 0.03410578519105911, 0.0372626855969429, 0.04041958972811699, 0.04357649385929108, 0.046733397990465164, 0.04989030212163925, 0.05304720252752304, 0.05620410665869713, 0.059361010789871216, 0.062517911195755, 0.0656748116016388, 0.06883171945810318, 0.07198861986398697, 0.07514552772045135, 0.07830242812633514, 0.08145932853221893, 0.08461623638868332, 0.08777313679456711, 0.0909300446510315, 0.09408694505691528]}, "parameters/fc3.weight": {"_type": "histogram", "values": [1.0, 0.0, 0.0, 0.0, 0.0, 0.0, 1.0, 0.0, 1.0, 1.0, 0.0, 1.0, 2.0, 1.0, 3.0, 0.0, 0.0, 1.0, 3.0, 2.0, 4.0, 8.0, 3.0, 3.0, 14.0, 11.0, 19.0, 12.0, 19.0, 13.0, 16.0, 19.0, 19.0, 19.0, 13.0, 11.0, 25.0, 23.0, 8.0, 17.0, 9.0, 3.0, 3.0, 3.0, 2.0, 1.0, 3.0, 2.0, 4.0, 2.0, 0.0, 1.0, 1.0, 0.0, 2.0, 1.0, 2.0, 2.0, 0.0, 0.0, 0.0, 0.0, 1.0, 1.0], "bins": [-0.4273461699485779, -0.41415223479270935, -0.40095826983451843, -0.3877643346786499, -0.374570369720459, -0.36137643456459045, -0.3481824994087219, -0.334988534450531, -0.3217945992946625, -0.30860066413879395, -0.295406699180603, -0.2822127640247345, -0.26901882886886597, -0.25582486391067505, -0.24263092875480652, -0.2294369786977768, -0.21624302864074707, -0.20304907858371735, -0.18985512852668762, -0.1766611933708191, -0.16346724331378937, -0.15027329325675964, -0.1370793581008911, -0.12388540804386139, -0.11069145798683167, -0.09749750792980194, -0.08430356532335281, -0.07110962271690369, -0.05791567265987396, -0.04472172260284424, -0.03152777999639511, -0.018333837389945984, -0.00513988733291626, 0.008054058998823166, 0.02124800533056259, 0.03444195166230202, 0.04763589799404144, 0.06082984805107117, 0.0740237906575203, 0.08721773326396942, 0.10041168332099915, 0.11360563337802887, 0.1267995834350586, 0.13999351859092712, 0.15318746864795685, 0.16638141870498657, 0.1795753538608551, 0.19276930391788483, 0.20596325397491455, 0.21915720403194427, 0.232351154088974, 0.24554508924484253, 0.25873905420303345, 0.271932989358902, 0.2851269245147705, 0.2983208894729614, 0.31151482462882996, 0.3247087597846985, 0.3379027247428894, 0.35109665989875793, 0.36429059505462646, 0.3774845600128174, 0.3906784951686859, 0.40387243032455444, 0.41706639528274536]}, "parameters/fc3.bias": {"_type": "histogram", "values": [1.0, 0.0, 0.0, 0.0, 0.0, 0.0, 0.0, 1.0, 0.0, 0.0, 0.0, 0.0, 0.0, 0.0, 1.0, 0.0, 0.0, 0.0, 0.0, 0.0, 0.0, 0.0, 0.0, 0.0, 0.0, 0.0, 0.0, 0.0, 0.0, 0.0, 0.0, 0.0, 0.0, 0.0, 0.0, 0.0, 0.0, 0.0, 0.0, 0.0, 0.0, 0.0, 0.0, 0.0, 0.0, 0.0, 0.0, 0.0, 0.0, 0.0, 0.0, 0.0, 0.0, 0.0, 0.0, 0.0, 0.0, 0.0, 0.0, 0.0, 0.0, 0.0, 0.0, 1.0], "bins": [-0.20282672345638275, -0.19459345936775208, -0.1863601952791214, -0.17812693119049072, -0.16989366710186005, -0.16166040301322937, -0.1534271538257599, -0.14519387483596802, -0.13696062564849854, -0.12872736155986786, -0.12049409747123718, -0.1122608333826065, -0.10402756929397583, -0.09579430520534515, -0.08756104856729507, -0.0793277844786644, -0.07109451293945312, -0.06286124885082245, -0.05462798476219177, -0.046394724398851395, -0.03816146031022072, -0.029928196221590042, -0.021694935858249664, -0.013461671769618988, -0.005228415131568909, 0.003004848025739193, 0.011238111183047295, 0.01947137340903282, 0.027704637497663498, 0.035937901586294174, 0.04417116194963455, 0.05240442603826523, 0.060637712478637695, 0.06887097656726837, 0.07710424065589905, 0.08533750474452972, 0.0935707688331604, 0.10180403292179108, 0.11003728955984116, 0.11827055364847183, 0.1265038251876831, 0.13473708927631378, 0.14297035336494446, 0.15120361745357513, 0.1594368815422058, 0.1676701456308365, 0.17590340971946716, 0.18413665890693665, 0.19236992299556732, 0.200603187084198, 0.20883645117282867, 0.21706971526145935, 0.22530297935009003, 0.2335362434387207, 0.24176949262619019, 0.25000277161598206, 0.25823602080345154, 0.266469269990921, 0.2747025489807129, 0.2829357981681824, 0.29116907715797424, 0.2994023263454437, 0.3076356053352356, 0.3158688545227051, 0.32410213351249695]}, "gradients/fc3.bias": {"_type": "histogram", "values": [1.0, 0.0, 0.0, 0.0, 0.0, 0.0, 0.0, 0.0, 0.0, 0.0, 0.0, 0.0, 0.0, 0.0, 0.0, 0.0, 0.0, 0.0, 0.0, 0.0, 0.0, 0.0, 0.0, 0.0, 0.0, 0.0, 0.0, 0.0, 0.0, 0.0, 0.0, 0.0, 0.0, 0.0, 0.0, 0.0, 0.0, 0.0, 0.0, 0.0, 0.0, 0.0, 0.0, 0.0, 0.0, 0.0, 0.0, 0.0, 0.0, 0.0, 0.0, 0.0, 0.0, 0.0, 0.0, 0.0, 0.0, 1.0, 0.0, 0.0, 0.0, 0.0, 0.0, 2.0], "bins": [-0.0025757551193237305, -0.0025199297815561295, -0.002464104676619172, -0.002408279338851571, -0.00235245400108397, -0.0022966288961470127, -0.0022408035583794117, -0.0021849782206118107, -0.0021291531156748533, -0.0020733277779072523, -0.002017502672970295, -0.001961677335202694, -0.0019058521138504148, -0.0018500268924981356, -0.0017942015547305346, -0.0017383763333782554, -0.0016825511120259762, -0.001626725890673697, -0.001570900552906096, -0.0015150753315538168, -0.0014592501102015376, -0.0014034248888492584, -0.0013475995510816574, -0.0012917743297293782, -0.0012359489919617772, -0.001180123770609498, -0.001124298432841897, -0.0010684732114896178, -0.0010126479901373386, -0.0009568227105773985, -0.0009009974310174584, -0.0008451722096651793, -0.0007893469883129001, -0.00073352170875296, -0.0006776964874006808, -0.0006218712078407407, -0.0005660459864884615, -0.0005102207069285214, -0.00045439545647241175, -0.0003985702060163021, -0.0003427449846640229, -0.0002869197342079133, -0.00023109448375180364, -0.00017526921874377877, -0.00011944396828766912, -6.361870327964425e-05, -7.793452823534608e-06, 4.8031797632575035e-05, 0.00010385707719251513, 0.00015968232764862478, 0.00021550757810473442, 0.0002713328576646745, 0.0003271580790169537, 0.0003829833585768938, 0.00043880860903300345, 0.0004946338594891131, 0.0005504591390490532, 0.0006062844186089933, 0.0006621096399612725, 0.0007179349195212126, 0.0007737601408734918, 0.0008295854204334319, 0.000885410699993372, 0.0009412359213456511, 0.0009970611426979303]}, "gradients/fc3.weight": {"_type": "histogram", "values": [1.0, 0.0, 0.0, 1.0, 0.0, 0.0, 0.0, 0.0, 0.0, 0.0, 0.0, 1.0, 2.0, 1.0, 0.0, 0.0, 0.0, 0.0, 0.0, 0.0, 0.0, 0.0, 1.0, 0.0, 0.0, 2.0, 0.0, 3.0, 0.0, 1.0, 0.0, 1.0, 0.0, 0.0, 0.0, 1.0, 1.0, 0.0, 2.0, 1.0, 0.0, 1.0, 0.0, 1.0, 0.0, 0.0, 254.0, 5.0, 10.0, 4.0, 5.0, 5.0, 3.0, 9.0, 5.0, 1.0, 1.0, 1.0, 5.0, 3.0, 0.0, 1.0, 1.0, 2.0], "bins": [-0.005355631001293659, -0.005239556543529034, -0.005123482085764408, -0.0050074076279997826, -0.004891333170235157, -0.0047752587124705315, -0.004659184254705906, -0.00454310979694128, -0.004427035339176655, -0.004310960881412029, -0.004194886423647404, -0.004078811965882778, -0.003962737508118153, -0.003846663050353527, -0.003730588359758258, -0.0036145139019936323, -0.003498439211398363, -0.0033823647536337376, -0.003266290295869112, -0.0031502158381044865, -0.003034141380339861, -0.0029180669225752354, -0.002801992231979966, -0.0026859177742153406, -0.002569843316450715, -0.0024537688586860895, -0.002337694400921464, -0.0022216199431568384, -0.002105545252561569, -0.0019894707947969437, -0.0018733963370323181, -0.0017573218792676926, -0.0016412471886724234, -0.0015251727309077978, -0.0014090982731431723, -0.0012930236989632249, -0.0011769492411985993, -0.0010608747834339738, -0.0009448002674616873, -0.0008287257514894009, -0.0007126512937247753, -0.0005965768359601498, -0.0004805023199878633, -0.0003644278331194073, -0.0002483533462509513, -0.00013227888848632574, -1.6204372514039278e-05, 9.987014345824718e-05, 0.00021594460122287273, 0.00033201908809132874, 0.00044809357495978475, 0.0005641680909320712, 0.0006802425486966968, 0.0007963170064613223, 0.0009123915224336088, 0.0010284660384058952, 0.0011445404961705208, 0.0012606149539351463, 0.0013766894116997719, 0.0014927639858797193, 0.0016088384436443448, 0.0017249129014089704, 0.0018409874755889177, 0.0019570619333535433, 0.002073136391118169]}, "gradients/fc2.bias": {"_type": "histogram", "values": [1.0, 0.0, 0.0, 0.0, 0.0, 1.0, 0.0, 0.0, 0.0, 0.0, 0.0, 0.0, 0.0, 0.0, 0.0, 0.0, 0.0, 0.0, 3.0, 0.0, 0.0, 0.0, 1.0, 0.0, 0.0, 0.0, 0.0, 0.0, 0.0, 1.0, 0.0, 0.0, 0.0, 0.0, 0.0, 2.0, 1.0, 0.0, 1.0, 1.0, 0.0, 0.0, 0.0, 0.0, 0.0, 2.0, 0.0, 0.0, 0.0, 0.0, 0.0, 0.0, 1.0, 1.0, 0.0, 1.0, 1.0, 0.0, 1.0, 0.0, 0.0, 1.0, 0.0, 64.0], "bins": [-0.0015474017709493637, -0.0015228443080559373, -0.0014982869615778327, -0.0014737294986844063, -0.0014491720357909799, -0.0014246146893128753, -0.0014000572264194489, -0.0013754997635260224, -0.0013509424170479178, -0.0013263849541544914, -0.0013018276076763868, -0.0012772701447829604, -0.001252712681889534, -0.0012281553354114294, -0.001203597872518003, -0.0011790404096245766, -0.001154483063146472, -0.0011299256002530456, -0.001105368253774941, -0.0010808107908815145, -0.0010562533279880881, -0.0010316959815099835, -0.0010071385186165571, -0.0009825810557231307, -0.0009580235928297043, -0.0009334661881439388, -0.0009089087252505124, -0.0008843513205647469, -0.0008597939158789814, -0.0008352365111932158, -0.0008106790482997894, -0.0007861216436140239, -0.0007615642389282584, -0.0007370068342424929, -0.0007124493713490665, -0.000687891966663301, -0.0006633345619775355, -0.00063877715729177, -0.0006142196943983436, -0.0005896622897125781, -0.0005651048850268126, -0.000540547480341047, -0.0005159900174476206, -0.0004914326127618551, -0.0004668752080760896, -0.00044231777428649366, -0.0004177603404968977, -0.0003932029358111322, -0.00036864550202153623, -0.00034408806823194027, -0.00031953066354617476, -0.0002949732297565788, -0.00027041579596698284, -0.00024585839128121734, -0.00022130095749162138, -0.00019674353825394064, -0.0001721861190162599, -0.00014762869977857918, -0.00012307128054089844, -9.851384675130248e-05, -7.395642751362175e-05, -4.9399008275941014e-05, -2.4841574486345053e-05, -2.841552486643195e-07, 2.4273271264974028e-05]}, "gradients/fc2.weight": {"_type": "histogram", "values": [1.0, 0.0, 0.0, 0.0, 0.0, 1.0, 0.0, 0.0, 0.0, 0.0, 0.0, 0.0, 1.0, 0.0, 0.0, 1.0, 1.0, 0.0, 4.0, 1.0, 0.0, 1.0, 3.0, 0.0, 0.0, 2.0, 3.0, 3.0, 2.0, 8.0, 3.0, 4.0, 4.0, 6.0, 5.0, 4.0, 12.0, 10.0, 12.0, 19.0, 10.0, 11.0, 16.0, 15.0, 23.0, 29.0, 22.0, 25.0, 31.0, 35.0, 37.0, 34.0, 43.0, 59.0, 35.0, 52.0, 55.0, 62.0, 61.0, 95.0, 111.0, 118.0, 273.0, 8717.0], "bins": [-0.004603719338774681, -0.004530658014118671, -0.0044575962238013744, -0.004384534899145365, -0.004311473574489355, -0.004238411784172058, -0.004165350459516048, -0.004092289134860039, -0.004019227344542742, -0.003946166019886732, -0.0038731044624000788, -0.0038000429049134254, -0.003726981347426772, -0.003653919789940119, -0.003580858465284109, -0.003507796907797456, -0.0034347353503108025, -0.003361673792824149, -0.0032886124681681395, -0.003215550910681486, -0.003142489353194833, -0.0030694277957081795, -0.00299636647105217, -0.0029233049135655165, -0.002850243588909507, -0.0027771820314228535, -0.002704120706766844, -0.0026310591492801905, -0.002557997591793537, -0.002484936034306884, -0.002411874709650874, -0.002338813152164221, -0.0022657515946775675, -0.002192690037190914, -0.0021196287125349045, -0.002046567155048251, -0.001973505597561598, -0.0019004441564902663, -0.0018273827154189348, -0.0017543211579322815, -0.0016812596004456282, -0.0016081981593742967, -0.0015351366018876433, -0.0014620751608163118, -0.0013890136033296585, -0.001315952162258327, -0.0012428907211869955, -0.0011698291637003422, -0.0010967677226290107, -0.0010237062815576792, -0.0009506447240710258, -0.0008775832829996943, -0.000804521725513041, -0.0007314602844417095, -0.0006583987851627171, -0.0005853372858837247, -0.0005122758448123932, -0.0004392143455334008, -0.00036615284625440836, -0.0002930913760792464, -0.000220029876800254, -0.00014696837752126157, -7.390690734609962e-05, -8.454080671072006e-07, 7.221610576380044e-05]}, "gradients/fc1.bias": {"_type": "histogram", "values": [1.0, 1.0, 0.0, 0.0, 0.0, 0.0, 0.0, 1.0, 1.0, 0.0, 0.0, 0.0, 0.0, 1.0, 0.0, 1.0, 0.0, 1.0, 1.0, 1.0, 1.0, 0.0, 2.0, 1.0, 1.0, 1.0, 1.0, 2.0, 3.0, 2.0, 1.0, 1.0, 3.0, 6.0, 1.0, 1.0, 2.0, 2.0, 52.0, 0.0, 0.0, 0.0, 4.0, 4.0, 3.0, 1.0, 1.0, 1.0, 1.0, 1.0, 0.0, 1.0, 3.0, 1.0, 0.0, 0.0, 1.0, 0.0, 1.0, 0.0, 1.0, 1.0, 2.0, 1.0], "bins": [-0.0014404838439077139, -0.0014027496799826622, -0.0013650153996422887, -0.001327281235717237, -0.0012895469553768635, -0.0012518127914518118, -0.00121407862752676, -0.0011763444636017084, -0.001138610183261335, -0.0011008760193362832, -0.0010631417389959097, -0.001025407575070858, -0.0009876734111458063, -0.0009499391308054328, -0.0009122049668803811, -0.0008744707447476685, -0.0008367365226149559, -0.0007990023004822433, -0.0007612680783495307, -0.000723533914424479, -0.0006857996922917664, -0.0006480654701590538, -0.0006103313062340021, -0.0005725970841012895, -0.0005348628619685769, -0.0004971286398358643, -0.00045939444680698216, -0.0004216602537781, -0.0003839260316453874, -0.0003461918095126748, -0.00030845761648379266, -0.0002707234234549105, -0.00023298925952985883, -0.00019525505194906145, -0.00015752084436826408, -0.0001197866367874667, -8.205242920666933e-05, -4.4318221625871956e-05, -6.584014045074582e-06, 3.1150178983807564e-05, 6.888440111652017e-05, 0.00010661860869731754, 0.00014435281627811491, 0.0001820870238589123, 0.00021982123143970966, 0.00025755545357242227, 0.0002952896466013044, 0.00033302383963018656, 0.00037075806176289916, 0.00040849228389561176, 0.0004462264769244939, 0.00048396066995337605, 0.0005216948920860887, 0.0005594291142188013, 0.0005971633363515139, 0.0006348975002765656, 0.0006726317224092782, 0.0007103659445419908, 0.0007481001084670424, 0.000785834330599755, 0.0008235685527324677, 0.0008613027748651803, 0.0008990369969978929, 0.0009367711609229445, 0.0009745053830556571]}, "gradients/fc1.weight": {"_type": "histogram", "values": [2.0, 2.0, 0.0, 0.0, 1.0, 1.0, 0.0, 2.0, 2.0, 0.0, 1.0, 1.0, 0.0, 2.0, 0.0, 3.0, 0.0, 2.0, 3.0, 2.0, 4.0, 1.0, 5.0, 2.0, 4.0, 4.0, 3.0, 5.0, 8.0, 7.0, 4.0, 3.0, 7.0, 18.0, 5.0, 4.0, 5.0, 7.0, 156.0, 0.0, 0.0, 3.0, 10.0, 13.0, 8.0, 3.0, 3.0, 3.0, 3.0, 2.0, 3.0, 3.0, 7.0, 2.0, 1.0, 0.0, 3.0, 1.0, 3.0, 2.0, 2.0, 3.0, 4.0, 2.0], "bins": [-0.003241088707000017, -0.00315618677996099, -0.0030712848529219627, -0.002986382693052292, -0.0029014807660132647, -0.0028165788389742374, -0.0027316769119352102, -0.002646774984896183, -0.002561872825026512, -0.002476970897987485, -0.0023920689709484577, -0.002307166811078787, -0.0022222648840397596, -0.0021373629570007324, -0.002052461029961705, -0.001967559102922678, -0.0018826571758836508, -0.0017977552488446236, -0.0017128532053902745, -0.0016279512783512473, -0.0015430492348968983, -0.001458147307857871, -0.0013732453808188438, -0.0012883434537798166, -0.0012034415267407894, -0.0011185395997017622, -0.0010336375562474132, -0.0009487356292083859, -0.0008638336439616978, -0.0007789316587150097, -0.0006940297316759825, -0.0006091277464292943, -0.000524225877597928, -0.0004393238923512399, -0.00035442193620838225, -0.0002695199800655246, -0.00018461799481883645, -9.971600957214832e-05, -1.4814082533121109e-05, 7.008790271356702e-05, 0.00015499000437557697, 0.00023989197507034987, 0.00032479394576512277, 0.00040969590190798044, 0.0004945978871546686, 0.0005794998724013567, 0.0006644017994403839, 0.000749303784687072, 0.0008342056535184383, 0.0009191076387651265, 0.0010040096240118146, 0.0010889115510508418, 0.0011738135945051908, 0.001258715521544218, 0.0013436174485832453, 0.0014285193756222725, 0.0015134214190766215, 0.0015983233461156487, 0.0016832253895699978, 0.001768127316609025, 0.0018530292436480522, 0.0019379312871024013, 0.0020228330977261066, 0.0021077352575957775, 0.0021926371846348047]}, "_runtime": 6, "_timestamp": 1640046069, "_step": 0, "_wandb": {"runtime": 6}}