{"parameters/fc1.weight": {"_type": "histogram", "values": [1.0, 1.0, 2.0, 9.0, 10.0, 6.0, 8.0, 3.0, 8.0, 7.0, 4.0, 6.0, 2.0, 5.0, 8.0, 4.0, 3.0, 10.0, 5.0, 3.0, 4.0, 6.0, 4.0, 9.0, 6.0, 5.0, 6.0, 4.0, 8.0, 10.0, 2.0, 7.0, 8.0, 9.0, 6.0, 5.0, 9.0, 8.0, 5.0, 4.0, 3.0, 8.0, 5.0, 4.0, 4.0, 5.0, 5.0, 7.0, 8.0, 9.0, 4.0, 4.0, 6.0, 6.0, 2.0, 6.0, 8.0, 7.0, 7.0, 7.0, 4.0, 4.0, 4.0, 3.0], "bins": [-0.6250290274620056, -0.6058122515678406, -0.5865954756736755, -0.5673786401748657, -0.5481618642807007, -0.5289450883865356, -0.5097283124923706, -0.49051153659820557, -0.47129473090171814, -0.4520779550075531, -0.4328611493110657, -0.41364437341690063, -0.3944275975227356, -0.37521079182624817, -0.35599401593208313, -0.3367772102355957, -0.31756043434143066, -0.2983436584472656, -0.2791268527507782, -0.25991007685661316, -0.24069328606128693, -0.2214764952659607, -0.20225971937179565, -0.18304292857646942, -0.1638261377811432, -0.14460934698581696, -0.12539255619049072, -0.10617578029632568, -0.08695898950099945, -0.06774219870567322, -0.04852541536092758, -0.029308632016181946, -0.010091781616210938, 0.009125005453824997, 0.02834179252386093, 0.047558579593896866, 0.0667753666639328, 0.08599215745925903, 0.10520894080400467, 0.1244257241487503, 0.14364251494407654, 0.16285930573940277, 0.182076096534729, 0.20129287242889404, 0.22050966322422028, 0.2397264540195465, 0.25894322991371155, 0.278160035610199, 0.297376811504364, 0.31659358739852905, 0.3358103930950165, 0.3550271689891815, 0.37424397468566895, 0.393460750579834, 0.412677526473999, 0.43189430236816406, 0.4511111080646515, 0.47032788395881653, 0.48954468965530396, 0.508761465549469, 0.527978241443634, 0.5471950769424438, 0.5664118528366089, 0.5856286287307739, 0.604845404624939]}, "parameters/fc1.bias": {"_type": "histogram", "values": [2.0, 2.0, 1.0, 3.0, 1.0, 0.0, 5.0, 3.0, 1.0, 0.0, 1.0, 4.0, 2.0, 0.0, 2.0, 3.0, 1.0, 0.0, 1.0, 3.0, 1.0, 5.0, 1.0, 1.0, 1.0, 3.0, 5.0, 2.0, 0.0, 2.0, 2.0, 1.0, 4.0, 1.0, 1.0, 1.0, 2.0, 4.0, 2.0, 2.0, 3.0, 1.0, 1.0, 2.0, 0.0, 1.0, 2.0, 0.0, 1.0, 2.0, 2.0, 1.0, 2.0, 1.0, 3.0, 2.0, 3.0, 2.0, 2.0, 1.0, 1.0, 1.0, 3.0, 7.0], "bins": [-0.5762474536895752, -0.5583338141441345, -0.5404201149940491, -0.5225064754486084, -0.504592776298523, -0.4866791367530823, -0.4687654972076416, -0.45085182785987854, -0.4329381585121155, -0.4150244891643524, -0.39711081981658936, -0.3791971802711487, -0.3612835109233856, -0.34336984157562256, -0.3254562020301819, -0.3075425326824188, -0.28962886333465576, -0.2717151939868927, -0.25380152463912964, -0.23588788509368896, -0.2179742157459259, -0.20006054639816284, -0.18214689195156097, -0.1642332375049591, -0.14631956815719604, -0.12840589880943298, -0.11049224436283112, -0.09257858246564865, -0.07466492056846619, -0.05675125867128372, -0.03883759677410126, -0.02092394232749939, -0.003010272979736328, 0.014903388917446136, 0.0328170508146286, 0.050730712711811066, 0.06864437460899353, 0.086558036506176, 0.10447169840335846, 0.12238535284996033, 0.1402990221977234, 0.15821269154548645, 0.17612634599208832, 0.19404000043869019, 0.21195366978645325, 0.2298673391342163, 0.24778099358081818, 0.26569464802742004, 0.2836083173751831, 0.30152198672294617, 0.31943565607070923, 0.3373492956161499, 0.35526296496391296, 0.373176634311676, 0.3910902738571167, 0.40900394320487976, 0.4269176125526428, 0.4448312819004059, 0.46274495124816895, 0.4806585907936096, 0.4985722601413727, 0.5164859294891357, 0.5343995690345764, 0.5523132085800171, 0.5702269077301025]}, "parameters/fc2.weight": {"_type": "histogram", "values": [2.0, 2.0, 2.0, 2.0, 0.0, 2.0, 6.0, 8.0, 12.0, 13.0, 27.0, 26.0, 37.0, 297.0, 313.0, 293.0, 306.0, 335.0, 304.0, 285.0, 325.0, 308.0, 309.0, 329.0, 313.0, 314.0, 278.0, 296.0, 323.0, 315.0, 325.0, 297.0, 337.0, 321.0, 316.0, 308.0, 299.0, 321.0, 295.0, 314.0, 312.0, 291.0, 306.0, 282.0, 223.0, 40.0, 30.0, 20.0, 13.0, 11.0, 5.0, 8.0, 4.0, 7.0, 1.0, 1.0, 1.0, 5.0, 0.0, 1.0, 1.0, 1.0, 1.0, 1.0], "bins": [-0.16660507023334503, -0.16085724532604218, -0.1551094353199005, -0.14936161041259766, -0.143613800406456, -0.13786597549915314, -0.13211816549301147, -0.12637034058570862, -0.12062252312898636, -0.1148747056722641, -0.10912688821554184, -0.10337907075881958, -0.09763124585151672, -0.09188343584537506, -0.0861356109380722, -0.08038779348134995, -0.07463997602462769, -0.06889215856790543, -0.06314434111118317, -0.05739651992917061, -0.05164870247244835, -0.04590088501572609, -0.04015306383371353, -0.03440524637699127, -0.028657421469688416, -0.022909604012966156, -0.017161784693598747, -0.011413965374231339, -0.005666147917509079, 8.166953921318054e-05, 0.0058294907212257385, 0.011577308177947998, 0.01732511818408966, 0.02307293564081192, 0.02882075496017933, 0.03456857427954674, 0.040316391736269, 0.04606420919299126, 0.051812030375003815, 0.057559847831726074, 0.06330765783786774, 0.06905547529459, 0.07480329275131226, 0.08055111765861511, 0.08629892766475677, 0.09204675257205963, 0.09779457002878189, 0.10354238748550415, 0.109290212392807, 0.11503802984952927, 0.12078584730625153, 0.12653367221355438, 0.13228148221969604, 0.1380293071269989, 0.14377713203430176, 0.14952494204044342, 0.15527275204658508, 0.16102057695388794, 0.1667683869600296, 0.17251621186733246, 0.17826402187347412, 0.18401184678077698, 0.18975967168807983, 0.1955074816942215, 0.20125530660152435]}, "parameters/fc2.bias": {"_type": "histogram", "values": [1.0, 0.0, 0.0, 1.0, 1.0, 3.0, 0.0, 0.0, 4.0, 2.0, 1.0, 0.0, 1.0, 2.0, 2.0, 3.0, 1.0, 2.0, 1.0, 0.0, 0.0, 0.0, 1.0, 1.0, 1.0, 3.0, 1.0, 3.0, 3.0, 3.0, 1.0, 1.0, 1.0, 1.0, 2.0, 4.0, 3.0, 0.0, 6.0, 2.0, 0.0, 1.0, 5.0, 4.0, 0.0, 0.0, 2.0, 1.0, 0.0, 0.0, 2.0, 3.0, 0.0, 2.0, 0.0, 0.0, 0.0, 1.0, 0.0, 0.0, 0.0, 0.0, 0.0, 1.0], "bins": [-0.09581304341554642, -0.09237512201070786, -0.0889371931552887, -0.08549927175045013, -0.08206134289503098, -0.07862342149019241, -0.07518549263477325, -0.07174757122993469, -0.06830964982509613, -0.06487172842025757, -0.06143379956483841, -0.05799587815999985, -0.05455795302987099, -0.051120027899742126, -0.047682102769613266, -0.044244177639484406, -0.040806252509355545, -0.037368327379226685, -0.033930402249097824, -0.030492478981614113, -0.0270545557141304, -0.02361663058400154, -0.02017870545387268, -0.01674078218638897, -0.01330285519361496, -0.009864930994808674, -0.006427006330341101, -0.0029890816658735275, 0.00044884253293275833, 0.003886766731739044, 0.007324691861867905, 0.010762615129351616, 0.014200538396835327, 0.017638463526964188, 0.0210763867944479, 0.02451431192457676, 0.02795223519206047, 0.03139016032218933, 0.03482808545231819, 0.03826601058244705, 0.041703931987285614, 0.045141857117414474, 0.048579782247543335, 0.0520177036523819, 0.05545562878251076, 0.05889355391263962, 0.06233147904276848, 0.06576940417289734, 0.0692073255777359, 0.07264524698257446, 0.07608317583799362, 0.07952109724283218, 0.08295902609825134, 0.0863969475030899, 0.08983486890792847, 0.09327279776334763, 0.09671072661876678, 0.10014864802360535, 0.1035865768790245, 0.10702449828386307, 0.11046242713928223, 0.11390034854412079, 0.11733826994895935, 0.12077619880437851, 0.12421412020921707]}, "parameters/fc3.weight": {"_type": "histogram", "values": [1.0, 2.0, 0.0, 0.0, 1.0, 1.0, 0.0, 1.0, 3.0, 1.0, 7.0, 1.0, 3.0, 7.0, 5.0, 2.0, 5.0, 5.0, 13.0, 13.0, 19.0, 13.0, 17.0, 14.0, 15.0, 17.0, 13.0, 6.0, 13.0, 18.0, 17.0, 16.0, 14.0, 12.0, 9.0, 10.0, 10.0, 3.0, 5.0, 4.0, 1.0, 2.0, 3.0, 1.0, 1.0, 2.0, 0.0, 0.0, 2.0, 3.0, 0.0, 0.0, 0.0, 0.0, 1.0, 1.0, 0.0, 0.0, 0.0, 0.0, 2.0, 0.0, 0.0, 1.0], "bins": [-0.3232311010360718, -0.3112504184246063, -0.29926973581314087, -0.2872890532016754, -0.27530837059020996, -0.2633276879787445, -0.25134700536727905, -0.2393663376569748, -0.22738565504550934, -0.21540497243404388, -0.20342428982257843, -0.19144362211227417, -0.17946293950080872, -0.16748225688934326, -0.1555015742778778, -0.14352089166641235, -0.1315402090549469, -0.11955952644348145, -0.10757884383201599, -0.09559816867113113, -0.08361748605966568, -0.07163680344820023, -0.05965612828731537, -0.047675445675849915, -0.035694777965545654, -0.02371409721672535, -0.011733416467905045, 0.0002472624182701111, 0.012227945029735565, 0.02420862764120102, 0.036189302802085876, 0.04816998541355133, 0.06015068292617798, 0.07213136553764343, 0.08411204814910889, 0.09609272330999374, 0.1080734059214592, 0.12005408853292465, 0.1320347636938095, 0.14401544630527496, 0.1559961438179016, 0.16797682642936707, 0.17995750904083252, 0.19193819165229797, 0.20391887426376343, 0.21589955687522888, 0.22788022458553314, 0.2398609071969986, 0.25184157490730286, 0.2638222575187683, 0.27580294013023376, 0.2877836227416992, 0.2997643053531647, 0.3117449879646301, 0.3237256407737732, 0.33570635318756104, 0.3476870059967041, 0.35966768860816956, 0.371648371219635, 0.38362905383110046, 0.3956097364425659, 0.40759041905403137, 0.4195711016654968, 0.4315517544746399, 0.44353246688842773]}, "parameters/fc3.bias": {"_type": "histogram", "values": [1.0, 0.0, 0.0, 0.0, 0.0, 0.0, 0.0, 0.0, 0.0, 0.0, 0.0, 0.0, 0.0, 0.0, 0.0, 0.0, 0.0, 0.0, 0.0, 0.0, 0.0, 0.0, 0.0, 0.0, 1.0, 0.0, 0.0, 0.0, 0.0, 0.0, 0.0, 0.0, 0.0, 0.0, 0.0, 0.0, 0.0, 0.0, 0.0, 0.0, 0.0, 0.0, 0.0, 0.0, 0.0, 0.0, 0.0, 0.0, 0.0, 0.0, 1.0, 0.0, 0.0, 0.0, 0.0, 0.0, 0.0, 0.0, 0.0, 0.0, 0.0, 0.0, 0.0, 1.0], "bins": [-0.1737571805715561, -0.16925977170467377, -0.16476236283779144, -0.1602649688720703, -0.155767560005188, -0.15127015113830566, -0.14677274227142334, -0.14227533340454102, -0.1377779245376587, -0.13328051567077637, -0.12878310680389404, -0.12428570538759232, -0.11978830397129059, -0.11529089510440826, -0.11079348623752594, -0.10629607737064362, -0.10179868340492249, -0.09730127453804016, -0.09280387312173843, -0.08830646425485611, -0.08380906283855438, -0.07931165397167206, -0.07481424510478973, -0.07031683623790741, -0.06581943482160568, -0.06132202968001366, -0.05682462453842163, -0.05232721567153931, -0.04782981052994728, -0.043332405388355255, -0.03883499652147293, -0.034337591379880905, -0.029840178787708282, -0.025342773646116257, -0.02084536664187908, -0.016347959637641907, -0.011850554496049881, -0.007353149354457855, -0.0028557423502206802, 0.0016416646540164948, 0.0061390697956085205, 0.010636475868523121, 0.015133881941437721, 0.019631288945674896, 0.024128694087266922, 0.028626099228858948, 0.03312350809574127, 0.0376209132373333, 0.042118318378925323, 0.04661572352051735, 0.051113128662109375, 0.0556105375289917, 0.060107942670583725, 0.06460534781217575, 0.06910275667905807, 0.0736001580953598, 0.07809756696224213, 0.08259497582912445, 0.08709237724542618, 0.0915897861123085, 0.09608718752861023, 0.10058459639549255, 0.10508200526237488, 0.1095794141292572, 0.11407681554555893]}, "gradients/fc3.bias": {"_type": "histogram", "values": [1.0, 0.0, 0.0, 0.0, 0.0, 0.0, 0.0, 0.0, 0.0, 0.0, 0.0, 0.0, 0.0, 0.0, 0.0, 0.0, 0.0, 0.0, 0.0, 0.0, 0.0, 0.0, 0.0, 0.0, 0.0, 0.0, 0.0, 0.0, 0.0, 0.0, 0.0, 0.0, 0.0, 0.0, 0.0, 0.0, 0.0, 0.0, 0.0, 0.0, 0.0, 0.0, 0.0, 0.0, 0.0, 0.0, 0.0, 0.0, 0.0, 0.0, 0.0, 0.0, 0.0, 0.0, 0.0, 0.0, 0.0, 1.0, 0.0, 0.0, 0.0, 0.0, 0.0, 2.0], "bins": [-0.0018246173858642578, -0.0017851124284788966, -0.0017456074710935354, -0.0017061023972928524, -0.0016665974399074912, -0.00162709248252213, -0.001587587408721447, -0.0015480824513360858, -0.0015085774939507246, -0.0014690725365653634, -0.0014295675791800022, -0.0013900625053793192, -0.001350557547993958, -0.0013110525906085968, -0.0012715475168079138, -0.0012320425594225526, -0.0011925376020371914, -0.0011530326446518302, -0.001113527687266469, -0.001074022613465786, -0.0010345176560804248, -0.0009950126986950636, -0.0009555076831020415, -0.0009160026675090194, -0.0008764977101236582, -0.000836992752738297, -0.0007974877371452749, -0.0007579827215522528, -0.0007184777641668916, -0.0006789728067815304, -0.0006394677911885083, -0.0005999627755954862, -0.0005604577017948031, -0.000520952744409442, -0.00048144772881641984, -0.0004419427423272282, -0.00040243775583803654, -0.0003629327693488449, -0.00032342778285965323, -0.0002839227963704616, -0.00024441780988126993, -0.00020491282339207828, -0.00016540783690288663, -0.00012590285041369498, -8.639786392450333e-05, -4.6892877435311675e-05, -7.387890946120024e-06, 3.211709554307163e-05, 7.162208203226328e-05, 0.00011112706852145493, 0.00015063205501064658, 0.00019013704149983823, 0.00022964202798902988, 0.00026914701447822154, 0.0003086520009674132, 0.00034815698745660484, 0.0003876619739457965, 0.00042716696043498814, 0.0004666719469241798, 0.0005061769625172019, 0.0005456819199025631, 0.0005851868772879243, 0.0006246918928809464, 0.0006641969084739685, 0.0007037018658593297]}, "gradients/fc3.weight": {"_type": "histogram", "values": [2.0, 0.0, 0.0, 0.0, 0.0, 0.0, 0.0, 0.0, 1.0, 1.0, 0.0, 2.0, 0.0, 1.0, 0.0, 1.0, 0.0, 1.0, 0.0, 0.0, 0.0, 1.0, 0.0, 1.0, 0.0, 0.0, 1.0, 0.0, 0.0, 2.0, 1.0, 0.0, 0.0, 0.0, 3.0, 0.0, 0.0, 1.0, 2.0, 0.0, 2.0, 1.0, 0.0, 2.0, 1.0, 2.0, 230.0, 9.0, 10.0, 7.0, 9.0, 2.0, 7.0, 5.0, 4.0, 4.0, 1.0, 4.0, 3.0, 4.0, 4.0, 0.0, 0.0, 4.0], "bins": [-0.0034064138308167458, -0.0033326612319797277, -0.0032589086331427097, -0.003185155801475048, -0.00311140320263803, -0.003037650603801012, -0.002963898004963994, -0.002890145406126976, -0.002816392807289958, -0.00274264020845294, -0.002668887609615922, -0.002595135010778904, -0.0025213821791112423, -0.0024476295802742243, -0.0023738769814372063, -0.0023001243826001883, -0.0022263717837631702, -0.0021526191849261522, -0.002078866586089134, -0.0020051137544214725, -0.0019313612719997764, -0.0018576085567474365, -0.0017838559579104185, -0.0017101033590734005, -0.0016363505274057388, -0.0015625979285687208, -0.001488845213316381, -0.001415092614479363, -0.001341340015642345, -0.0012675873003900051, -0.001193834701552987, -0.001120082102715969, -0.001046329620294273, -0.000972576963249594, -0.000898824364412576, -0.000825071707367897, -0.000751319108530879, -0.0006775664514862001, -0.0006038137944415212, -0.0005300611956045032, -0.00045630859676748514, -0.00038255596882663667, -0.0003088033408857882, -0.00023505068384110928, -0.0001612980559002608, -8.754542795941234e-05, -1.379277091473341e-05, 5.99598279222846e-05, 0.00013371254317462444, 0.0002074651711154729, 0.0002812177990563214, 0.0003549704561010003, 0.0004287230840418488, 0.0005024757119826972, 0.0005762283690273762, 0.0006499809678643942, 0.0007237336249090731, 0.000797486281953752, 0.00087123888079077, 0.000944991537835449, 0.001018744194880128, 0.001092496793717146, 0.001166249392554164, 0.001240001991391182, 0.0013137547066435218]}, "gradients/fc2.bias": {"_type": "histogram", "values": [1.0, 1.0, 0.0, 0.0, 0.0, 0.0, 0.0, 0.0, 0.0, 1.0, 1.0, 0.0, 0.0, 1.0, 0.0, 1.0, 0.0, 0.0, 1.0, 0.0, 1.0, 0.0, 1.0, 0.0, 0.0, 1.0, 0.0, 0.0, 0.0, 0.0, 1.0, 1.0, 1.0, 0.0, 2.0, 0.0, 0.0, 1.0, 0.0, 0.0, 0.0, 0.0, 0.0, 0.0, 0.0, 1.0, 0.0, 1.0, 2.0, 1.0, 55.0, 0.0, 1.0, 0.0, 2.0, 0.0, 0.0, 1.0, 0.0, 0.0, 0.0, 0.0, 3.0, 1.0], "bins": [-0.0010766390478238463, -0.001055406522937119, -0.0010341739980503917, -0.0010129414731636643, -0.000991708948276937, -0.0009704763651825488, -0.0009492438402958214, -0.0009280113154090941, -0.0009067787905223668, -0.0008855462656356394, -0.0008643137407489121, -0.0008430812158621848, -0.0008218486327677965, -0.0008006161078810692, -0.0007793835829943419, -0.0007581510581076145, -0.0007369185332208872, -0.0007156860083341599, -0.0006944534834474325, -0.0006732209585607052, -0.0006519884336739779, -0.0006307558505795896, -0.0006095233256928623, -0.0005882908008061349, -0.0005670582759194076, -0.0005458257510326803, -0.0005245932261459529, -0.0005033607012592256, -0.0004821281472686678, -0.0004608956223819405, -0.0004396630683913827, -0.00041843054350465536, -0.0003971979604102671, -0.0003759654355235398, -0.00035473291063681245, -0.00033350035664625466, -0.0003122678317595273, -0.0002910353068728, -0.0002698027528822422, -0.00024857022799551487, -0.00022733770310878754, -0.0002061051782220602, -0.00018487263878341764, -0.00016364009934477508, -0.00014240757445804775, -0.0001211750422953628, -9.994251013267785e-05, -7.870997069403529e-05, -5.747744580730796e-05, -3.624491364462301e-05, -1.5012381481938064e-05, 6.220150680746883e-06, 2.745268284343183e-05, 4.868521500611678e-05, 6.991774716880172e-05, 9.115028660744429e-05, 0.00011238281149417162, 0.00013361533638089895, 0.00015484787581954151, 0.00017608041525818408, 0.0001973129401449114, 0.00021854546503163874, 0.0002397780044702813, 0.00026101054390892386, 0.0002822430687956512]}, "gradients/fc2.weight": {"_type": "histogram", "values": [2.0, 2.0, 1.0, 1.0, 4.0, 1.0, 1.0, 2.0, 1.0, 3.0, 3.0, 3.0, 7.0, 7.0, 4.0, 7.0, 5.0, 5.0, 11.0, 3.0, 10.0, 9.0, 16.0, 15.0, 13.0, 9.0, 7.0, 21.0, 16.0, 17.0, 18.0, 17.0, 21.0, 21.0, 26.0, 29.0, 32.0, 27.0, 31.0, 37.0, 41.0, 39.0, 42.0, 52.0, 40.0, 49.0, 52.0, 71.0, 86.0, 168.0, 8537.0, 109.0, 77.0, 61.0, 41.0, 25.0, 22.0, 29.0, 14.0, 17.0, 15.0, 14.0, 10.0, 4.0], "bins": [-0.0025438314769417048, -0.0024936641566455364, -0.0024434970691800117, -0.0023933297488838434, -0.0023431626614183187, -0.0022929953411221504, -0.0022428282536566257, -0.0021926609333604574, -0.002142493613064289, -0.0020923262927681208, -0.002042159205302596, -0.0019919918850064278, -0.001941824797540903, -0.0018916574772447348, -0.0018414902733638883, -0.0017913230694830418, -0.001741155982017517, -0.0016909887781366706, -0.001640821574255824, -0.0015906543703749776, -0.001540487166494131, -0.0014903198461979628, -0.0014401526423171163, -0.0013899854384362698, -0.0013398182345554233, -0.0012896510306745768, -0.0012394838267937303, -0.0011893166229128838, -0.0011391493026167154, -0.0010889822151511908, -0.0010388148948550224, -0.000988647690974176, -0.0009384804870933294, -0.0008883132832124829, -0.0008381460793316364, -0.000787978817243129, -0.0007378116133622825, -0.000687644409481436, -0.0006374771473929286, -0.0005873099435120821, -0.0005371427396312356, -0.0004869755357503891, -0.00043680830276571214, -0.0003866410697810352, -0.0003364738659001887, -0.0002863066620193422, -0.00023613942903466523, -0.00018597219604998827, -0.00013580499216914177, -8.563777373638004e-05, -3.547055530361831e-05, 1.4696663129143417e-05, 6.486388156190515e-05, 0.00011503108544275165, 0.0001651983184274286, 0.00021536555141210556, 0.00026553275529295206, 0.00031569995917379856, 0.0003658671921584755, 0.0004160344251431525, 0.000466201629023999, 0.0005163688329048455, 0.0005665360949933529, 0.0006167032988741994, 0.0006668705027550459]}, "gradients/fc1.bias": {"_type": "histogram", "values": [2.0, 0.0, 0.0, 0.0, 0.0, 0.0, 1.0, 0.0, 1.0, 0.0, 0.0, 0.0, 1.0, 0.0, 0.0, 0.0, 0.0, 0.0, 2.0, 2.0, 1.0, 0.0, 1.0, 1.0, 3.0, 3.0, 1.0, 1.0, 1.0, 2.0, 2.0, 0.0, 3.0, 2.0, 2.0, 0.0, 0.0, 3.0, 59.0, 0.0, 2.0, 1.0, 2.0, 1.0, 0.0, 1.0, 0.0, 1.0, 1.0, 0.0, 1.0, 4.0, 4.0, 0.0, 0.0, 1.0, 0.0, 3.0, 0.0, 1.0, 0.0, 0.0, 1.0, 2.0], "bins": [-0.0011992782820016146, -0.0011683941120281816, -0.0011375099420547485, -0.0011066257720813155, -0.0010757416021078825, -0.0010448574321344495, -0.0010139732621610165, -0.0009830892086029053, -0.0009522049804218113, -0.0009213208104483783, -0.0008904366404749453, -0.0008595524705015123, -0.0008286683587357402, -0.0007977841887623072, -0.0007669000187888741, -0.0007360158488154411, -0.0007051316788420081, -0.0006742475088685751, -0.0006433633388951421, -0.0006124791689217091, -0.000581594998948276, -0.000550710828974843, -0.0005198267172090709, -0.0004889425472356379, -0.0004580583772622049, -0.00042717420728877187, -0.00039629003731533885, -0.0003654058964457363, -0.00033452172647230327, -0.00030363755649887025, -0.0002727534156292677, -0.00024186924565583467, -0.00021098519209772348, -0.00018010102212429047, -0.00014921686670277268, -0.00011833270400529727, -8.744854130782187e-05, -5.656437133438885e-05, -2.5680215912871063e-05, 5.203939508646727e-06, 3.6088109482079744e-05, 6.697227217955515e-05, 9.785643487703055e-05, 0.00012874059029854834, 0.00015962476027198136, 0.00019050893024541438, 0.00022139308566693217, 0.00025227724108844995, 0.00028316141106188297, 0.000314045581035316, 0.000344929751008749, 0.00037581389187835157, 0.0004066980618517846, 0.0004375822318252176, 0.00046846637269482017, 0.0004993505426682532, 0.0005302347126416862, 0.0005611188826151192, 0.0005920030525885522, 0.0006228872225619853, 0.0006537713343277574, 0.0006846555043011904, 0.0007155396742746234, 0.0007464238442480564, 0.0007773080142214894]}, "gradients/fc1.weight": {"_type": "histogram", "values": [4.0, 0.0, 0.0, 0.0, 2.0, 0.0, 2.0, 0.0, 2.0, 1.0, 0.0, 1.0, 2.0, 0.0, 0.0, 1.0, 0.0, 0.0, 4.0, 4.0, 4.0, 1.0, 4.0, 2.0, 7.0, 7.0, 7.0, 4.0, 3.0, 5.0, 7.0, 1.0, 9.0, 4.0, 8.0, 0.0, 0.0, 9.0, 177.0, 0.0, 7.0, 3.0, 6.0, 2.0, 1.0, 2.0, 1.0, 3.0, 2.0, 3.0, 6.0, 10.0, 8.0, 1.0, 0.0, 5.0, 0.0, 7.0, 0.0, 2.0, 1.0, 2.0, 2.0, 4.0], "bins": [-0.002698376076295972, -0.002628886606544256, -0.002559397369623184, -0.0024899078998714685, -0.0024204186629503965, -0.002350929193198681, -0.002281439956277609, -0.002211950486525893, -0.002142461249604821, -0.0020729717798531055, -0.0020034825429320335, -0.0019339931895956397, -0.0018645038362592459, -0.001795014482922852, -0.0017255251295864582, -0.0016560356598347425, -0.0015865463064983487, -0.0015170569531619549, -0.001447567599825561, -0.0013780782464891672, -0.0013085888931527734, -0.0012390995398163795, -0.0011696100700646639, -0.0011001208331435919, -0.0010306313633918762, -0.0009611420100554824, -0.0008916526567190886, -0.0008221633033826947, -0.0007526739500463009, -0.0006831845967099071, -0.0006136951851658523, -0.0005442058318294585, -0.00047471653670072556, -0.0004052271833643317, -0.0003357378300279379, -0.0002662484475877136, -0.00019675909425131977, -0.00012726974091492593, -5.778035847470164e-05, 1.170899486169219e-05, 8.119828999042511e-05, 0.00015068764332681894, 0.000220177011215128, 0.00028966637910343707, 0.0003591557324398309, 0.00042864508577622473, 0.000498134468216449, 0.0005676238215528429, 0.0006371132330968976, 0.0007066025864332914, 0.0007760919397696853, 0.0008455812931060791, 0.0009150706464424729, 0.0009845599997788668, 0.0010540494695305824, 0.0011235387064516544, 0.00119302817620337, 0.001262517529539764, 0.0013320068828761578, 0.0014014962362125516, 0.0014709855895489454, 0.0015404749428853393, 0.001609964296221733, 0.0016794537659734488, 0.0017489430028945208]}, "_runtime": 8, "_timestamp": 1640046622, "_step": 0, "_wandb": {"runtime": 7}}